{
  "gamma_0.1": {
    "year": 2021,
    "gamma": 0.1,
    "iterations": 750,
    "monthly_trades": [
      {
        "month": 7,
        "file_date": "2020-07-01",
        "actual_trading_month": "2021-07",
        "return": -0.17682282626628876,
        "sharpe": -7.611538887023926,
        "raw_return": -0.17532283067703247,
        "volatility": 0.023230889812111855,
        "ytd": -0.17682282626628876,
        "top_weights": [
          0.20808061957359314,
          0.18501707911491394,
          0.11585341393947601,
          0.10595577955245972,
          0.09126662462949753
        ]
      },
      {
        "month": 8,
        "file_date": "2020-08-01",
        "actual_trading_month": "2021-08",
        "return": -0.003782727988436818,
        "sharpe": -7.332949161529541,
        "raw_return": -0.002282727975398302,
        "volatility": 0.0005158534622751176,
        "ytd": -0.17993668160081355,
        "top_weights": [
          0.7756483554840088,
          0.08254087716341019,
          0.040609732270240784,
          0.03223195672035217,
          0.010358703322708607
        ]
      },
      {
        "month": 9,
        "file_date": "2020-09-01",
        "actual_trading_month": "2021-09",
        "return": -0.007882801815867424,
        "sharpe": -0.48330244421958923,
        "raw_return": -0.006382802035659552,
        "volatility": 0.01631028763949871,
        "ytd": -0.18640107821621688,
        "top_weights": [
          0.9994966983795166,
          0.00014683873450849205,
          6.40908838249743e-05,
          5.424827759270556e-05,
          3.6705729144159704e-05
        ]
      },
      {
        "month": 10,
        "file_date": "2020-10-01",
        "actual_trading_month": "2021-10",
        "return": -0.0953710600733757,
        "sharpe": -2.4451260566711426,
        "raw_return": -0.09387105703353882,
        "volatility": 0.03900455683469772,
        "ytd": -0.2639948698612917,
        "top_weights": [
          0.9687146544456482,
          0.015154365450143814,
          0.004321326036006212,
          0.0025898560415953398,
          0.002281761262565851
        ]
      },
      {
        "month": 11,
        "file_date": "2020-11-01",
        "actual_trading_month": "2021-11",
        "return": 0.09938392043113708,
        "sharpe": 6.037289142608643,
        "raw_return": 0.10088392347097397,
        "volatility": 0.016461679711937904,
        "ytd": -0.1908477945706777,
        "top_weights": [
          0.5027549266815186,
          0.3948746919631958,
          0.06576605886220932,
          0.016046008095145226,
          0.003949920181185007
        ]
      },
      {
        "month": 12,
        "file_date": "2020-12-01",
        "actual_trading_month": "2021-12",
        "return": -0.22470486164093018,
        "sharpe": -6.659685134887695,
        "raw_return": -0.2232048660516739,
        "volatility": 0.0337410643696785,
        "ytd": -0.3726682289381271,
        "top_weights": [
          0.8810541033744812,
          0.05942537635564804,
          0.03307685628533363,
          0.02307893894612789,
          0.0023847462143749
        ]
      }
    ],
    "cumulative": 0.6273317710618729,
    "annual_return": -0.3726682289381271,
    "avg_return": -0.06819672622562696,
    "std_return": 0.11022936410185338,
    "win_rate": 0.16666666666666666,
    "trades": 6,
    "best_month": 0.09938392043113708,
    "worst_month": -0.22470486164093018,
    "sharpe_ratio": -0.6186802102999004
  },
  "gamma_0.3": {
    "year": 2021,
    "gamma": 0.3,
    "iterations": 750,
    "monthly_trades": [
      {
        "month": 7,
        "file_date": "2020-07-01",
        "actual_trading_month": "2021-07",
        "return": -0.12261340767145157,
        "sharpe": -5.690534591674805,
        "raw_return": -0.12111340463161469,
        "volatility": 0.021546903997659683,
        "ytd": -0.12261340767145157,
        "top_weights": [
          0.22904568910598755,
          0.17130878567695618,
          0.06850340962409973,
          0.064621202647686,
          0.04146217927336693
        ]
      },
      {
        "month": 8,
        "file_date": "2020-08-01",
        "actual_trading_month": "2021-08",
        "return": -0.0052382079884409904,
        "sharpe": -7.342139720916748,
        "raw_return": -0.0037382077425718307,
        "volatility": 0.0007134441984817386,
        "ytd": -0.12720934112833804,
        "top_weights": [
          0.7121351957321167,
          0.08907302469015121,
          0.06597341597080231,
          0.05120030418038368,
          0.010354699566960335
        ]
      },
      {
        "month": 9,
        "file_date": "2020-09-01",
        "actual_trading_month": "2021-09",
        "return": -0.007855531759560108,
        "sharpe": -0.4827044904232025,
        "raw_return": -0.006355531979352236,
        "volatility": 0.016273997724056244,
        "ytd": -0.13406557586855172,
        "top_weights": [
          0.996240496635437,
          0.0012598414905369282,
          0.0004039331979583949,
          0.00031607114942744374,
          0.00027042400324717164
        ]
      },
      {
        "month": 10,
        "file_date": "2020-10-01",
        "actual_trading_month": "2021-10",
        "return": 0.02153570018708706,
        "sharpe": 0.7848693132400513,
        "raw_return": 0.023035699501633644,
        "volatility": 0.027438580989837646,
        "ytd": -0.11541707172877902,
        "top_weights": [
          0.6708186268806458,
          0.06541966646909714,
          0.05560801923274994,
          0.037927087396383286,
          0.032733943313360214
        ]
      },
      {
        "month": 11,
        "file_date": "2020-11-01",
        "actual_trading_month": "2021-11",
        "return": 0.014695939607918262,
        "sharpe": 0.9509592652320862,
        "raw_return": 0.016195939853787422,
        "volatility": 0.015453805215656757,
        "ytd": -0.10241729443670966,
        "top_weights": [
          0.9774664044380188,
          0.013369686901569366,
          0.0052038454450666904,
          0.0015104078920558095,
          0.0010685943998396397
        ]
      },
      {
        "month": 12,
        "file_date": "2020-12-01",
        "actual_trading_month": "2021-12",
        "return": -0.20855514705181122,
        "sharpe": -4.461446285247803,
        "raw_return": -0.20705515146255493,
        "volatility": 0.046746086329221725,
        "ytd": -0.28961278758662423,
        "top_weights": [
          0.6642165780067444,
          0.20470207929611206,
          0.08922267705202103,
          0.017655352130532265,
          0.008031648583710194
        ]
      }
    ],
    "cumulative": 0.7103872124133758,
    "annual_return": -0.28961278758662423,
    "avg_return": -0.051338442446043096,
    "std_return": 0.08513165127373544,
    "win_rate": 0.3333333333333333,
    "trades": 6,
    "best_month": 0.02153570018708706,
    "worst_month": -0.20855514705181122,
    "sharpe_ratio": -0.6030476516972849
  },
  "gamma_0.5": {
    "year": 2021,
    "gamma": 0.5,
    "iterations": 750,
    "monthly_trades": [
      {
        "month": 7,
        "file_date": "2020-07-01",
        "actual_trading_month": "2021-07",
        "return": -0.10194607079029083,
        "sharpe": -6.401735305786133,
        "raw_return": -0.10044606775045395,
        "volatility": 0.015924755483865738,
        "ytd": -0.10194607079029083,
        "top_weights": [
          0.1448979377746582,
          0.10430826991796494,
          0.08009468019008636,
          0.05082269757986069,
          0.030565548688173294
        ]
      },
      {
        "month": 8,
        "file_date": "2020-08-01",
        "actual_trading_month": "2021-08",
        "return": -0.006096419878304005,
        "sharpe": -7.527554988861084,
        "raw_return": -0.004596420098096132,
        "volatility": 0.0008098803809843957,
        "ytd": -0.10742098461611393,
        "top_weights": [
          0.6751800179481506,
          0.1114823967218399,
          0.07676364481449127,
          0.04580256715416908,
          0.009983363561332226
        ]
      },
      {
        "month": 9,
        "file_date": "2020-09-01",
        "actual_trading_month": "2021-09",
        "return": -0.006902164779603481,
        "sharpe": -0.43141135573387146,
        "raw_return": -0.005402164533734322,
        "volatility": 0.01599903404712677,
        "ytd": -0.11358171205910972,
        "top_weights": [
          0.9622365832328796,
          0.022701868787407875,
          0.004416888579726219,
          0.0014082101406529546,
          0.0010119874496012926
        ]
      },
      {
        "month": 10,
        "file_date": "2020-10-01",
        "actual_trading_month": "2021-10",
        "return": 0.15453100204467773,
        "sharpe": 3.1455042362213135,
        "raw_return": 0.15603099763393402,
        "volatility": 0.04912757873535156,
        "ytd": 0.023397394207123723,
        "top_weights": [
          0.5132656097412109,
          0.4508483111858368,
          0.01792844384908676,
          0.007430736906826496,
          0.002814974868670106
        ]
      },
      {
        "month": 11,
        "file_date": "2020-11-01",
        "actual_trading_month": "2021-11",
        "return": 0.013530530966818333,
        "sharpe": 0.8833292722702026,
        "raw_return": 0.015030531212687492,
        "volatility": 0.015317652374505997,
        "ytd": 0.03724450434080451,
        "top_weights": [
          0.9768972396850586,
          0.012367707677185535,
          0.003951859660446644,
          0.0012090879026800394,
          0.0009543652413412929
        ]
      },
      {
        "month": 12,
        "file_date": "2020-12-01",
        "actual_trading_month": "2021-12",
        "return": -0.15832564234733582,
        "sharpe": -4.166873931884766,
        "raw_return": -0.15682564675807953,
        "volatility": 0.03799626603722572,
        "ytd": -0.12697789808019733,
        "top_weights": [
          0.5049216151237488,
          0.4611234664916992,
          0.011926996521651745,
          0.006933249998837709,
          0.0042167846113443375
        ]
      }
    ],
    "cumulative": 0.8730221019198027,
    "annual_return": -0.12697789808019733,
    "avg_return": -0.01753479413067301,
    "std_return": 0.0981180483042396,
    "win_rate": 0.3333333333333333,
    "trades": 6,
    "best_month": 0.15453100204467773,
    "worst_month": -0.15832564234733582,
    "sharpe_ratio": -0.17871119957900983
  }
}