{
  "year": 2021,
  "gamma": 0.5,
  "iterations": 750,
  "monthly_trades": [
    {
      "month": 7,
      "file_date": "2020-07-01",
      "actual_trading_month": "2021-07",
      "return": -0.10194607079029083,
      "sharpe": -6.401735305786133,
      "raw_return": -0.10044606775045395,
      "volatility": 0.015924755483865738,
      "ytd": -0.10194607079029083,
      "top_weights": [
        0.1448979377746582,
        0.10430826991796494,
        0.08009468019008636,
        0.05082269757986069,
        0.030565548688173294
      ]
    },
    {
      "month": 8,
      "file_date": "2020-08-01",
      "actual_trading_month": "2021-08",
      "return": -0.006096419878304005,
      "sharpe": -7.527554988861084,
      "raw_return": -0.004596420098096132,
      "volatility": 0.0008098803809843957,
      "ytd": -0.10742098461611393,
      "top_weights": [
        0.6751800179481506,
        0.1114823967218399,
        0.07676364481449127,
        0.04580256715416908,
        0.009983363561332226
      ]
    },
    {
      "month": 9,
      "file_date": "2020-09-01",
      "actual_trading_month": "2021-09",
      "return": -0.006902164779603481,
      "sharpe": -0.43141135573387146,
      "raw_return": -0.005402164533734322,
      "volatility": 0.01599903404712677,
      "ytd": -0.11358171205910972,
      "top_weights": [
        0.9622365832328796,
        0.022701868787407875,
        0.004416888579726219,
        0.0014082101406529546,
        0.0010119874496012926
      ]
    },
    {
      "month": 10,
      "file_date": "2020-10-01",
      "actual_trading_month": "2021-10",
      "return": 0.15453100204467773,
      "sharpe": 3.1455042362213135,
      "raw_return": 0.15603099763393402,
      "volatility": 0.04912757873535156,
      "ytd": 0.023397394207123723,
      "top_weights": [
        0.5132656097412109,
        0.4508483111858368,
        0.01792844384908676,
        0.007430736906826496,
        0.002814974868670106
      ]
    },
    {
      "month": 11,
      "file_date": "2020-11-01",
      "actual_trading_month": "2021-11",
      "return": 0.013530530966818333,
      "sharpe": 0.8833292722702026,
      "raw_return": 0.015030531212687492,
      "volatility": 0.015317652374505997,
      "ytd": 0.03724450434080451,
      "top_weights": [
        0.9768972396850586,
        0.012367707677185535,
        0.003951859660446644,
        0.0012090879026800394,
        0.0009543652413412929
      ]
    },
    {
      "month": 12,
      "file_date": "2020-12-01",
      "actual_trading_month": "2021-12",
      "return": -0.15832564234733582,
      "sharpe": -4.166873931884766,
      "raw_return": -0.15682564675807953,
      "volatility": 0.03799626603722572,
      "ytd": -0.12697789808019733,
      "top_weights": [
        0.5049216151237488,
        0.4611234664916992,
        0.011926996521651745,
        0.006933249998837709,
        0.0042167846113443375
      ]
    }
  ],
  "cumulative": 0.8730221019198027,
  "annual_return": -0.12697789808019733,
  "avg_return": -0.01753479413067301,
  "std_return": 0.0981180483042396,
  "win_rate": 0.3333333333333333,
  "trades": 6,
  "best_month": 0.15453100204467773,
  "worst_month": -0.15832564234733582,
  "sharpe_ratio": -0.17871119957900983
}