{
  "year": 2021,
  "gamma": 0.3,
  "iterations": 750,
  "monthly_trades": [
    {
      "month": 7,
      "file_date": "2020-07-01",
      "actual_trading_month": "2021-07",
      "return": -0.12261340767145157,
      "sharpe": -5.690534591674805,
      "raw_return": -0.12111340463161469,
      "volatility": 0.021546903997659683,
      "ytd": -0.12261340767145157,
      "top_weights": [
        0.22904568910598755,
        0.17130878567695618,
        0.06850340962409973,
        0.064621202647686,
        0.04146217927336693
      ]
    },
    {
      "month": 8,
      "file_date": "2020-08-01",
      "actual_trading_month": "2021-08",
      "return": -0.0052382079884409904,
      "sharpe": -7.342139720916748,
      "raw_return": -0.0037382077425718307,
      "volatility": 0.0007134441984817386,
      "ytd": -0.12720934112833804,
      "top_weights": [
        0.7121351957321167,
        0.08907302469015121,
        0.06597341597080231,
        0.05120030418038368,
        0.010354699566960335
      ]
    },
    {
      "month": 9,
      "file_date": "2020-09-01",
      "actual_trading_month": "2021-09",
      "return": -0.007855531759560108,
      "sharpe": -0.4827044904232025,
      "raw_return": -0.006355531979352236,
      "volatility": 0.016273997724056244,
      "ytd": -0.13406557586855172,
      "top_weights": [
        0.996240496635437,
        0.0012598414905369282,
        0.0004039331979583949,
        0.00031607114942744374,
        0.00027042400324717164
      ]
    },
    {
      "month": 10,
      "file_date": "2020-10-01",
      "actual_trading_month": "2021-10",
      "return": 0.02153570018708706,
      "sharpe": 0.7848693132400513,
      "raw_return": 0.023035699501633644,
      "volatility": 0.027438580989837646,
      "ytd": -0.11541707172877902,
      "top_weights": [
        0.6708186268806458,
        0.06541966646909714,
        0.05560801923274994,
        0.037927087396383286,
        0.032733943313360214
      ]
    },
    {
      "month": 11,
      "file_date": "2020-11-01",
      "actual_trading_month": "2021-11",
      "return": 0.014695939607918262,
      "sharpe": 0.9509592652320862,
      "raw_return": 0.016195939853787422,
      "volatility": 0.015453805215656757,
      "ytd": -0.10241729443670966,
      "top_weights": [
        0.9774664044380188,
        0.013369686901569366,
        0.0052038454450666904,
        0.0015104078920558095,
        0.0010685943998396397
      ]
    },
    {
      "month": 12,
      "file_date": "2020-12-01",
      "actual_trading_month": "2021-12",
      "return": -0.20855514705181122,
      "sharpe": -4.461446285247803,
      "raw_return": -0.20705515146255493,
      "volatility": 0.046746086329221725,
      "ytd": -0.28961278758662423,
      "top_weights": [
        0.6642165780067444,
        0.20470207929611206,
        0.08922267705202103,
        0.017655352130532265,
        0.008031648583710194
      ]
    }
  ],
  "cumulative": 0.7103872124133758,
  "annual_return": -0.28961278758662423,
  "avg_return": -0.051338442446043096,
  "std_return": 0.08513165127373544,
  "win_rate": 0.3333333333333333,
  "trades": 6,
  "best_month": 0.02153570018708706,
  "worst_month": -0.20855514705181122,
  "sharpe_ratio": -0.6030476516972849
}