{
  "year": 2021,
  "gamma": 0.1,
  "iterations": 750,
  "monthly_trades": [
    {
      "month": 7,
      "file_date": "2020-07-01",
      "actual_trading_month": "2021-07",
      "return": -0.17682282626628876,
      "sharpe": -7.611538887023926,
      "raw_return": -0.17532283067703247,
      "volatility": 0.023230889812111855,
      "ytd": -0.17682282626628876,
      "top_weights": [
        0.20808061957359314,
        0.18501707911491394,
        0.11585341393947601,
        0.10595577955245972,
        0.09126662462949753
      ]
    },
    {
      "month": 8,
      "file_date": "2020-08-01",
      "actual_trading_month": "2021-08",
      "return": -0.003782727988436818,
      "sharpe": -7.332949161529541,
      "raw_return": -0.002282727975398302,
      "volatility": 0.0005158534622751176,
      "ytd": -0.17993668160081355,
      "top_weights": [
        0.7756483554840088,
        0.08254087716341019,
        0.040609732270240784,
        0.03223195672035217,
        0.010358703322708607
      ]
    },
    {
      "month": 9,
      "file_date": "2020-09-01",
      "actual_trading_month": "2021-09",
      "return": -0.007882801815867424,
      "sharpe": -0.48330244421958923,
      "raw_return": -0.006382802035659552,
      "volatility": 0.01631028763949871,
      "ytd": -0.18640107821621688,
      "top_weights": [
        0.9994966983795166,
        0.00014683873450849205,
        6.40908838249743e-05,
        5.424827759270556e-05,
        3.6705729144159704e-05
      ]
    },
    {
      "month": 10,
      "file_date": "2020-10-01",
      "actual_trading_month": "2021-10",
      "return": -0.0953710600733757,
      "sharpe": -2.4451260566711426,
      "raw_return": -0.09387105703353882,
      "volatility": 0.03900455683469772,
      "ytd": -0.2639948698612917,
      "top_weights": [
        0.9687146544456482,
        0.015154365450143814,
        0.004321326036006212,
        0.0025898560415953398,
        0.002281761262565851
      ]
    },
    {
      "month": 11,
      "file_date": "2020-11-01",
      "actual_trading_month": "2021-11",
      "return": 0.09938392043113708,
      "sharpe": 6.037289142608643,
      "raw_return": 0.10088392347097397,
      "volatility": 0.016461679711937904,
      "ytd": -0.1908477945706777,
      "top_weights": [
        0.5027549266815186,
        0.3948746919631958,
        0.06576605886220932,
        0.016046008095145226,
        0.003949920181185007
      ]
    },
    {
      "month": 12,
      "file_date": "2020-12-01",
      "actual_trading_month": "2021-12",
      "return": -0.22470486164093018,
      "sharpe": -6.659685134887695,
      "raw_return": -0.2232048660516739,
      "volatility": 0.0337410643696785,
      "ytd": -0.3726682289381271,
      "top_weights": [
        0.8810541033744812,
        0.05942537635564804,
        0.03307685628533363,
        0.02307893894612789,
        0.0023847462143749
      ]
    }
  ],
  "cumulative": 0.6273317710618729,
  "annual_return": -0.3726682289381271,
  "avg_return": -0.06819672622562696,
  "std_return": 0.11022936410185338,
  "win_rate": 0.16666666666666666,
  "trades": 6,
  "best_month": 0.09938392043113708,
  "worst_month": -0.22470486164093018,
  "sharpe_ratio": -0.6186802102999004
}